{
  "stages": [
    {
      "weights": [
        0.030726,
        0.028307,
        0.004236,
        -0.023157,
        -0.032628,
        -0.018586,
        0.00453,
        0.015901,
        0.007361,
        -0.009653,
        -0.015496,
        -0.001356,
        0.021803,
        0.032821,
        0.019766,
        -0.008656,
        -0.030298,
        -0.028957,
        -0.008369,
        0.011842,
        0.014373,
        -0.00016,
        -0.01451,
        -0.011608,
        0.008797,
        0.029191,
        0.030092,
        0.008143,
        -0.020186,
        -0.032829,
        -0.021439,
        0.001742,
        0.015569,
        0.009396,
        -0.007643,
        -0.015879,
        -0.004171,
        0.018977,
        0.032681,
        0.02278,
        -0.004762,
        -0.028569,
        -0.030544,
        -0.011575,
        0.009942,
        0.015249,
        0.002223,
        -0.013348
      ],
      "bias": 0.006,
      "shrinkage": 0.6
    },
    {
      "weights": [
        0.015363,
        0.014153,
        0.002118,
        -0.011578,
        -0.016314,
        -0.009293,
        0.002265,
        0.00795,
        0.003681,
        -0.004826,
        -0.007748,
        -0.000678,
        0.010901,
        0.016411,
        0.009883,
        -0.004328,
        -0.015149,
        -0.014479,
        -0.004184,
        0.005921,
        0.007187,
        -8e-05,
        -0.007255,
        -0.005804,
        0.004399,
        0.014595,
        0.015046,
        0.004071,
        -0.010093,
        -0.016414,
        -0.010719,
        0.000871,
        0.007785,
        0.004698,
        -0.003822,
        -0.007939,
        -0.002085,
        0.009489,
        0.01634,
        0.01139,
        -0.002381,
        -0.014284,
        -0.015272,
        -0.005787,
        0.004971,
        0.007624,
        0.001111,
        -0.006674
      ],
      "bias": 0.003,
      "shrinkage": 0.3
    },
    {
      "weights": [
        0.005121,
        0.004718,
        0.000706,
        -0.00386,
        -0.005438,
        -0.003098,
        0.000755,
        0.00265,
        0.001227,
        -0.001609,
        -0.002583,
        -0.000226,
        0.003634,
        0.00547,
        0.003294,
        -0.001443,
        -0.00505,
        -0.004826,
        -0.001395,
        0.001974,
        0.002396,
        -2.7e-05,
        -0.002418,
        -0.001935,
        0.001466,
        0.004865,
        0.005015,
        0.001357,
        -0.003364,
        -0.005472,
        -0.003573,
        0.00029,
        0.002595,
        0.001566,
        -0.001274,
        -0.002646,
        -0.000695,
        0.003163,
        0.005447,
        0.003797,
        -0.000794,
        -0.004762,
        -0.005091,
        -0.001929,
        0.001657,
        0.002542,
        0.000371,
        -0.002225
      ],
      "bias": 0.001,
      "shrinkage": 0.1
    }
  ],
  "scale": 1.2
}